digraph Tree {
node [shape=box, style="filled, rounded", color="black", fontname=helvetica] ;
edge [fontname=helvetica] ;
0 [label="X[10] <= 10.65\nentropy = 1.0\nsamples = 1400\nvalue = [701, 699]", fillcolor="#fffffe"] ;
1 [label="X[1] <= 0.205\nentropy = 0.931\nsamples = 871\nvalue = [569, 302]", fillcolor="#f3c4a2"] ;
0 -> 1 [labeldistance=2.5, labelangle=45, headlabel="True"] ;
2 [label="X[5] <= 7.5\nentropy = 0.943\nsamples = 161\nvalue = [58, 103]", fillcolor="#a8d4f4"] ;
1 -> 2 ;
3 [label="entropy = 0.0\nsamples = 6\nvalue = [6, 0]", fillcolor="#e58139"] ;
2 -> 3 ;
4 [label="X[9] <= 0.475\nentropy = 0.92\nsamples = 155\nvalue = [52, 103]", fillcolor="#9dcef2"] ;
2 -> 4 ;
5 [label="entropy = 0.984\nsamples = 87\nvalue = [37, 50]", fillcolor="#cce6f8"] ;
4 -> 5 ;
6 [label="entropy = 0.761\nsamples = 68\nvalue = [15, 53]", fillcolor="#71b9ec"] ;
4 -> 6 ;
7 [label="X[1] <= 0.297\nentropy = 0.856\nsamples = 710\nvalue = [511, 199]", fillcolor="#efb286"] ;
1 -> 7 ;
8 [label="X[10] <= 10.017\nentropy = 0.952\nsamples = 366\nvalue = [230, 136]", fillcolor="#f4ccae"] ;
7 -> 8 ;
9 [label="entropy = 0.888\nsamples = 262\nvalue = [182, 80]", fillcolor="#f0b890"] ;
8 -> 9 ;
10 [label="entropy = 0.996\nsamples = 104\nvalue = [48, 56]", fillcolor="#e3f1fb"] ;
8 -> 10 ;
11 [label="X[10] <= 9.525\nentropy = 0.687\nsamples = 344\nvalue = [281, 63]", fillcolor="#eb9d65"] ;
7 -> 11 ;
12 [label="entropy = 0.476\nsamples = 176\nvalue = [158, 18]", fillcolor="#e88f50"] ;
11 -> 12 ;
13 [label="entropy = 0.838\nsamples = 168\nvalue = [123, 45]", fillcolor="#efaf81"] ;
11 -> 13 ;
14 [label="X[5] <= 11.5\nentropy = 0.811\nsamples = 529\nvalue = [132, 397]", fillcolor="#7bbeee"] ;
0 -> 14 [labeldistance=2.5, labelangle=-45, headlabel="False"] ;
15 [label="X[5] <= 7.5\nentropy = 0.753\nsamples = 37\nvalue = [29, 8]", fillcolor="#eca470"] ;
14 -> 15 ;
16 [label="entropy = 0.0\nsamples = 17\nvalue = [17, 0]", fillcolor="#e58139"] ;
15 -> 16 ;
17 [label="X[10] <= 12.075\nentropy = 0.971\nsamples = 20\nvalue = [12, 8]", fillcolor="#f6d5bd"] ;
15 -> 17 ;
18 [label="entropy = 0.811\nsamples = 16\nvalue = [12, 4]", fillcolor="#eeab7b"] ;
17 -> 18 ;
19 [label="entropy = 0.0\nsamples = 4\nvalue = [0, 4]", fillcolor="#399de5"] ;
17 -> 19 ;
20 [label="X[10] <= 11.55\nentropy = 0.74\nsamples = 492\nvalue = [103, 389]", fillcolor="#6db7ec"] ;
14 -> 20 ;
21 [label="X[1] <= 0.45\nentropy = 0.895\nsamples = 263\nvalue = [82, 181]", fillcolor="#93c9f1"] ;
20 -> 21 ;
22 [label="entropy = 0.874\nsamples = 255\nvalue = [75, 180]", fillcolor="#8bc6f0"] ;
21 -> 22 ;
23 [label="entropy = 0.544\nsamples = 8\nvalue = [7, 1]", fillcolor="#e99355"] ;
21 -> 23 ;
24 [label="X[4] <= 0.082\nentropy = 0.442\nsamples = 229\nvalue = [21, 208]", fillcolor="#4da7e8"] ;
20 -> 24 ;
25 [label="entropy = 0.415\nsamples = 227\nvalue = [19, 208]", fillcolor="#4ba6e7"] ;
24 -> 25 ;
26 [label="entropy = 0.0\nsamples = 2\nvalue = [2, 0]", fillcolor="#e58139"] ;
24 -> 26 ;
}